<?xml version="1.0"?>
<opencv_storage>
<cascade>
  <stageType>BOOST</stageType>
  <featureType>HAAR</featureType>
  <height>40</height>
  <width>40</width>
  <stageParams>
    <boostType>GAB</boostType>
    <minHitRate>9.9500000476837158e-01</minHitRate>
    <maxFalseAlarm>5.0000000000000000e-01</maxFalseAlarm>
    <weightTrimRate>9.4999998807907104e-01</weightTrimRate>
    <maxDepth>1</maxDepth>
    <maxWeakCount>100</maxWeakCount></stageParams>
  <featureParams>
    <maxCatCount>0</maxCatCount>
    <featSize>1</featSize>
    <mode>BASIC</mode></featureParams>
  <stageNum>3</stageNum>
  <stages>
    <!-- stage 0 -->
    <_>
      <maxWeakCount>3</maxWeakCount>
      <stageThreshold>-8.7840777635574341e-01</stageThreshold>
      <weakClassifiers>
        <_>
          <internalNodes>
            0 -1 5 -2.3914771154522896e-02</internalNodes>
          <leafValues>
            9.8360657691955566e-01 -8.3333331346511841e-01</leafValues></_>
        <_>
          <internalNodes>
            0 -1 1 -5.7562205940485001e-02</internalNodes>
          <leafValues>
            8.7484276294708252e-01 -7.5247091054916382e-01</leafValues></_>
        <_>
          <internalNodes>
            0 -1 2 -2.9970231116749346e-04</internalNodes>
          <leafValues>
            7.8058683872222900e-01 -9.1991722583770752e-01</leafValues></_></weakClassifiers></_>
    <!-- stage 1 -->
    <_>
      <maxWeakCount>3</maxWeakCount>
      <stageThreshold>-7.8543859720230103e-01</stageThreshold>
      <weakClassifiers>
        <_>
          <internalNodes>
            0 -1 6 2.7792716864496469e-03</internalNodes>
          <leafValues>
            -9.3013101816177368e-01 1.</leafValues></_>
        <_>
          <internalNodes>
            0 -1 4 1.7134891822934151e-04</internalNodes>
          <leafValues>
            1. -8.0991244316101074e-01</leafValues></_>
        <_>
          <internalNodes>
            0 -1 3 1.5265811234712601e-03</internalNodes>
          <leafValues>
            9.5460486412048340e-01 -7.7162581682205200e-01</leafValues></_></weakClassifiers></_>
    <!-- stage 2 -->
    <_>
      <maxWeakCount>1</maxWeakCount>
      <stageThreshold>1.</stageThreshold>
      <weakClassifiers>
        <_>
          <internalNodes>
            0 -1 0 -2.1104265761096030e-04</internalNodes>
          <leafValues>
            -1. 1.</leafValues></_></weakClassifiers></_></stages>
  <features>
    <_>
      <rects>
        <_>
          0 0 2 1 -1.</_>
        <_>
          1 0 1 1 2.</_></rects>
      <tilted>0</tilted></_>
    <_>
      <rects>
        <_>
          1 10 33 15 -1.</_>
        <_>
          12 10 11 15 3.</_></rects>
      <tilted>0</tilted></_>
    <_>
      <rects>
        <_>
          3 23 4 12 -1.</_>
        <_>
          3 27 4 4 3.</_></rects>
      <tilted>0</tilted></_>
    <_>
      <rects>
        <_>
          4 3 6 4 -1.</_>
        <_>
          7 3 3 4 2.</_></rects>
      <tilted>0</tilted></_>
    <_>
      <rects>
        <_>
          4 17 9 9 -1.</_>
        <_>
          4 20 9 3 3.</_></rects>
      <tilted>0</tilted></_>
    <_>
      <rects>
        <_>
          15 9 24 10 -1.</_>
        <_>
          15 14 24 5 2.</_></rects>
      <tilted>0</tilted></_>
    <_>
      <rects>
        <_>
          18 11 22 8 -1.</_>
        <_>
          18 11 11 4 2.</_>
        <_>
          29 15 11 4 2.</_></rects>
      <tilted>0</tilted></_></features></cascade>
</opencv_storage>
